<BEGINHMM>:
 <NUMSTATE>: 8
 <State> 1 	 <NUMMIXES> 2
 <MIXTURE> 1
 <MEAN> 12
-2.471715 -0.145310 -0.037468 0.325972 0.480818 -0.120587 0.007141 0.001576 0.089565 -0.012567 -0.107960 -0.023295 
 <VARIANCE> 12
7.063929 0.640115 0.552293 0.792384 0.415922 0.124744 0.496832 0.198447 0.184832 0.076706 0.069794 0.166489 
 <MIXTURE> 2
 <MEAN> 12
1.371113 0.448373 0.864812 0.971526 1.486105 -0.291650 -0.760369 -0.454661 -0.314156 -0.248852 -0.127967 0.312268 
 <VARIANCE> 12
8.508960 0.587255 0.590663 0.600149 0.720271 0.276925 0.464515 0.177866 0.152077 0.091982 0.119821 0.135845 
 <State> 2 	 <NUMMIXES> 2
 <MIXTURE> 1
 <MEAN> 12
3.233584 0.190639 -1.271581 -0.314748 -0.859472 0.476370 -0.572619 -1.260283 -0.030477 -0.525825 0.535863 0.777215 
 <VARIANCE> 12
0.433744 0.344620 0.454746 1.166438 1.010577 0.754852 0.179913 0.842388 0.114775 0.099647 0.241487 0.159855 
 <MIXTURE> 2
 <MEAN> 12
3.049149 0.575146 -0.447034 -1.659240 0.275568 -0.429831 -0.812477 -0.336013 -0.001783 -0.742869 0.005281 0.548885 
 <VARIANCE> 12
0.373482 0.642357 0.632954 1.550554 0.880951 0.690440 0.226215 0.542846 0.230741 0.197209 0.257514 0.281630 
 <State> 3 	 <NUMMIXES> 2
 <MIXTURE> 1
 <MEAN> 12
0.217729 1.031112 0.303784 0.560483 0.599752 -0.305788 -1.113315 -0.879994 0.145000 0.032357 -0.197943 0.319988 
 <VARIANCE> 12
3.744277 0.790660 0.803809 0.376166 0.256612 0.142678 0.491772 0.220001 0.255829 0.095297 0.173620 0.141393 
 <MIXTURE> 2
 <MEAN> 12
3.152407 -0.132107 -1.113085 0.608622 0.437086 -0.420291 -1.599734 -1.086935 0.181860 0.066797 -0.003810 0.357624 
 <VARIANCE> 12
6.174863 1.299487 1.693095 0.157790 0.272187 0.176232 0.601714 0.303658 0.205463 0.114302 0.133671 0.137814 
 <State> 4 	 <NUMMIXES> 2
 <MIXTURE> 1
 <MEAN> 12
-0.508030 0.439721 -0.064416 -0.646366 0.085631 -1.275471 -1.547999 -0.556313 0.672812 0.320243 -0.554892 0.561973 
 <VARIANCE> 12
0.644208 0.436141 0.833245 0.682478 0.134183 0.396466 0.195836 0.090700 0.128962 0.203222 0.132023 0.559223 
 <MIXTURE> 2
 <MEAN> 12
0.512568 -0.643905 -1.198187 -1.746793 0.401978 -0.502140 -0.939430 -0.410110 0.576675 0.745500 -0.180067 -0.365855 
 <VARIANCE> 12
0.675636 0.669085 0.802760 0.540915 0.198678 0.426774 0.402813 0.146226 0.084357 0.185922 0.151507 0.477282 
 <State> 5 	 <NUMMIXES> 2
 <MIXTURE> 1
 <MEAN> 12
0.532387 -0.167675 -1.923473 -1.419935 -0.307566 0.499433 -0.653829 -0.634679 0.399643 0.679502 0.157256 -0.464331 
 <VARIANCE> 12
0.616357 0.261491 0.144513 0.653904 0.057409 0.196511 0.064350 0.042869 0.047430 0.122057 0.100618 0.096403 
 <MIXTURE> 2
 <MEAN> 12
1.697263 -0.609501 -1.587453 -2.223939 -0.256536 0.636007 -0.432411 -0.521379 0.105428 0.464872 0.199170 -0.250270 
 <VARIANCE> 12
0.742901 0.322081 0.142517 0.279239 0.127046 0.137110 0.165947 0.071319 0.089546 0.048197 0.083124 0.103618 
 <State> 6 	 <NUMMIXES> 2
 <MIXTURE> 1
 <MEAN> 12
2.626986 1.048482 -0.936836 -1.615525 -0.471948 0.330135 -0.200476 -0.845857 -0.116731 -0.077275 0.362917 -0.001693 
 <VARIANCE> 12
0.886152 0.296348 0.322694 0.243445 0.171687 0.086736 0.121606 0.094919 0.153003 0.100619 0.056306 0.076949 
 <MIXTURE> 2
 <MEAN> 12
1.016256 0.536213 -1.327635 -1.165835 -0.202704 0.187479 -0.162896 -0.857227 -0.109559 -0.014523 0.278026 -0.065945 
 <VARIANCE> 12
1.441172 0.338232 0.311082 0.311020 0.171263 0.092884 0.124470 0.166224 0.170490 0.083215 0.078364 0.079139 
 <State> 7 	 <NUMMIXES> 2
 <MIXTURE> 1
 <MEAN> 12
-1.225203 -0.629365 -0.112291 -0.177623 -0.011160 -0.377416 -0.696344 -0.432924 -0.184632 -0.060188 0.091847 -0.082327 
 <VARIANCE> 12
6.015065 2.210049 0.352994 0.536599 0.274002 0.312299 0.340611 0.537185 0.146567 0.149778 0.129708 0.085572 
 <MIXTURE> 2
 <MEAN> 12
1.666177 0.825936 -0.461928 -0.689866 0.127378 0.106347 -0.855515 -1.033402 -0.115793 0.285053 0.386054 -0.187318 
 <VARIANCE> 12
2.055771 0.579372 0.153209 0.197992 0.101234 0.190318 0.201814 0.256905 0.149632 0.127194 0.125367 0.078601 
 <State> 8 	 <NUMMIXES> 2
 <MIXTURE> 1
 <MEAN> 12
-1.495659 -0.158718 -0.034586 -0.071926 0.441151 0.008117 -0.266920 -0.294212 0.080627 0.165153 0.208600 0.059069 
 <VARIANCE> 12
2.257893 0.422963 0.158655 0.114982 0.262949 0.122609 0.190151 0.133167 0.138453 0.113577 0.074119 0.063581 
 <MIXTURE> 2
 <MEAN> 12
0.404369 0.111126 -0.107715 -0.120574 0.637501 -0.064016 -0.682920 -0.460082 0.203691 0.083312 0.338614 0.031842 
 <VARIANCE> 12
1.992716 0.237624 0.118552 0.138888 0.183164 0.136341 0.320000 0.122349 0.169178 0.130340 0.081612 0.074376 



<TRANSP>
0.939850 0.060150 0.000000 0.000000 0.000000 0.000000 0.000000 0.000000 
0.000000 0.955056 0.044944 0.000000 0.000000 0.000000 0.000000 0.000000 
0.000000 0.000000 0.958115 0.041885 0.000000 0.000000 0.000000 0.000000 
0.000000 0.000000 0.000000 0.922330 0.077670 0.000000 0.000000 0.000000 
0.000000 0.000000 0.000000 0.000000 0.961165 0.038835 0.000000 0.000000 
0.000000 0.000000 0.000000 0.000000 0.000000 0.956522 0.043478 0.000000 
0.000000 0.000000 0.000000 0.000000 0.000000 0.000000 0.931624 0.068376 
0.000000 0.000000 0.000000 0.000000 0.000000 0.000000 0.000000 1.000000 
<ENDHMM>