<BEGINHMM>:
 <NUMSTATE>: 8
 <State> 1 	 <NUMMIXES> 2
 <MIXTURE> 1
 <MEAN> 12
-3.165163 -0.757239 -0.470159 -0.460067 -0.329598 -0.547248 -0.070888 -0.120900 -0.075669 -0.094459 -0.117024 0.180879 
 <VARIANCE> 12
5.645677 0.243063 0.290472 0.125419 0.139883 0.218675 0.158271 0.077924 0.129252 0.078720 0.111390 0.087792 
 <MIXTURE> 2
 <MEAN> 12
-0.680887 -0.915292 -0.853397 -0.607293 -0.295030 -0.261878 -0.049462 -0.153831 -0.066276 -0.136463 -0.240860 -0.000381 
 <VARIANCE> 12
1.671540 0.281231 0.221062 0.089025 0.104469 0.183205 0.099480 0.073939 0.120457 0.062375 0.091878 0.091720 
 <State> 2 	 <NUMMIXES> 2
 <MIXTURE> 1
 <MEAN> 12
0.284339 -0.158393 0.727034 -0.140977 -0.838072 -1.285742 -0.129829 0.243921 0.164585 -0.018162 -0.254068 0.617900 
 <VARIANCE> 12
0.359572 1.707853 0.819165 0.229025 0.241951 0.343828 0.235156 0.209502 0.123240 0.105445 0.067378 0.353289 
 <MIXTURE> 2
 <MEAN> 12
0.150697 -1.509308 -0.309918 -0.070247 -0.708347 -0.847688 0.252349 0.639036 0.349516 -0.033048 -0.378410 0.120333 
 <VARIANCE> 12
0.443884 1.089615 0.557919 0.294974 0.133907 0.226383 0.205882 0.120400 0.108860 0.111512 0.081933 0.148895 
 <State> 3 	 <NUMMIXES> 2
 <MIXTURE> 1
 <MEAN> 12
0.556149 -0.692953 1.935310 -0.001895 -0.912305 -0.666716 -0.203255 0.288673 -0.125499 -0.095983 -0.374547 0.652430 
 <VARIANCE> 12
0.310123 0.743532 1.060620 0.128299 0.280965 0.152245 0.157929 0.115311 0.314990 0.099109 0.170408 0.180419 
 <MIXTURE> 2
 <MEAN> 12
0.601618 -1.524674 0.636838 0.003289 -1.540459 -0.388784 -0.531575 0.617719 0.574898 -0.067844 0.171495 0.468717 
 <VARIANCE> 12
0.287627 0.842430 1.555294 0.136530 0.292205 0.152128 0.253266 0.109843 0.495595 0.110847 0.340451 0.113027 
 <State> 4 	 <NUMMIXES> 2
 <MIXTURE> 1
 <MEAN> 12
-0.898552 0.538415 2.594477 -0.085652 -0.786246 -0.557174 0.067303 -0.535620 -0.499807 -0.260964 0.026810 -0.065999 
 <VARIANCE> 12
0.359895 0.448665 0.568233 0.190420 0.720428 0.230377 0.153538 0.275450 0.097539 0.095307 0.103827 0.250916 
 <MIXTURE> 2
 <MEAN> 12
-1.186368 1.244742 1.888080 -0.504593 0.150981 -0.016238 -0.247882 0.236196 -0.599969 -0.205311 0.085044 -0.422763 
 <VARIANCE> 12
0.375139 0.258118 0.603990 0.263271 0.446793 0.436846 0.202498 0.454225 0.063355 0.091867 0.086100 0.220229 
 <State> 5 	 <NUMMIXES> 2
 <MIXTURE> 1
 <MEAN> 12
0.619427 -0.848171 0.959426 0.133080 -1.166141 -1.341423 -0.536270 0.050497 -0.079682 0.564134 0.036655 0.109965 
 <VARIANCE> 12
1.048779 1.146635 2.600561 0.100843 0.178143 0.676157 0.091823 0.150004 0.655097 0.223064 0.224566 0.229427 
 <MIXTURE> 2
 <MEAN> 12
-0.716009 0.447698 2.925684 0.141099 -1.178859 -0.484075 -0.711530 -0.229891 -1.041714 0.139688 0.437432 -0.277365 
 <VARIANCE> 12
0.812486 0.997795 1.945965 0.078733 0.189798 0.543127 0.098627 0.137988 0.453739 0.270842 0.121703 0.193857 
 <State> 6 	 <NUMMIXES> 2
 <MIXTURE> 1
 <MEAN> 12
1.181902 -1.348386 -0.540603 -0.484177 0.081635 -1.206849 -0.373172 0.106801 0.357835 1.173730 -0.156890 -0.568938 
 <VARIANCE> 12
0.396232 0.164472 0.250726 0.227153 0.208772 0.974285 0.253199 0.510486 0.046044 0.224708 0.132847 0.122446 
 <MIXTURE> 2
 <MEAN> 12
1.714120 -1.134925 -1.086157 -0.960300 0.147771 -0.187643 0.142897 -0.813641 0.373103 1.020821 0.218519 -0.663612 
 <VARIANCE> 12
0.513519 0.160175 0.408942 0.339963 0.139812 0.655521 0.302624 0.511120 0.136376 0.117506 0.132323 0.108949 
 <State> 7 	 <NUMMIXES> 2
 <MIXTURE> 1
 <MEAN> 12
1.387853 -0.244978 -1.169059 -0.283570 -0.026810 0.078433 0.186288 -0.686207 0.449888 0.248476 0.163645 -0.671528 
 <VARIANCE> 12
0.929905 0.526216 0.722006 0.177129 0.307234 0.251406 0.179406 0.497747 0.106879 0.073576 0.092692 0.318588 
 <MIXTURE> 2
 <MEAN> 12
0.265826 -0.962177 -0.330519 0.012873 0.515582 0.357206 0.011846 -0.077644 0.532300 0.161017 0.115658 -0.175578 
 <VARIANCE> 12
1.529087 0.685899 0.775465 0.397390 0.337495 0.147810 0.164207 0.540643 0.053925 0.121537 0.083465 0.161275 
 <State> 8 	 <NUMMIXES> 2
 <MIXTURE> 1
 <MEAN> 12
-0.547965 -0.989857 -1.100086 -0.422968 -0.260169 -0.359132 -0.264729 -0.020521 -0.022439 -0.171581 -0.208006 -0.057501 
 <VARIANCE> 12
0.166388 0.137588 0.140748 0.090675 0.277278 0.226016 0.074680 0.076048 0.073556 0.065774 0.073559 0.074685 
 <MIXTURE> 2
 <MEAN> 12
-0.219526 -1.152429 -0.900648 -0.323854 0.376876 0.103002 -0.273521 -0.041643 0.096127 -0.067809 -0.033862 -0.038343 
 <VARIANCE> 12
0.179913 0.106587 0.119664 0.136267 0.337900 0.217161 0.097459 0.068110 0.098272 0.088667 0.120409 0.087684 



<TRANSP>
0.943262 0.056738 0.000000 0.000000 0.000000 0.000000 0.000000 0.000000 
0.000000 0.956522 0.043478 0.000000 0.000000 0.000000 0.000000 0.000000 
0.000000 0.000000 0.905882 0.094118 0.000000 0.000000 0.000000 0.000000 
0.000000 0.000000 0.000000 0.947020 0.052980 0.000000 0.000000 0.000000 
0.000000 0.000000 0.000000 0.000000 0.908046 0.091954 0.000000 0.000000 
0.000000 0.000000 0.000000 0.000000 0.000000 0.933884 0.066116 0.000000 
0.000000 0.000000 0.000000 0.000000 0.000000 0.000000 0.944828 0.055172 
0.000000 0.000000 0.000000 0.000000 0.000000 0.000000 0.000000 1.000000 
<ENDHMM>