<BEGINHMM>:
 <NUMSTATE>: 8
 <State> 1 	 <NUMMIXES> 2
 <MIXTURE> 1
 <MEAN> 12
-2.955318 -0.113913 -0.251199 0.009553 0.270894 -0.146589 0.002994 -0.052323 -0.039520 -0.009072 -0.078316 -0.130396 
 <VARIANCE> 12
6.426003 0.758783 0.311046 0.474042 0.174770 0.362466 0.161643 0.094904 0.087186 0.096822 0.061856 0.060410 
 <MIXTURE> 2
 <MEAN> 12
-7.256328 0.684215 -0.127425 -0.902578 0.117566 -0.817281 -0.562526 -0.003885 -0.469976 -0.061927 -0.106241 -0.082620 
 <VARIANCE> 12
10.582905 0.968876 0.339772 0.726902 0.167956 0.429624 0.334777 0.091723 0.180940 0.075046 0.075346 0.057489 
 <State> 2 	 <NUMMIXES> 2
 <MIXTURE> 1
 <MEAN> 12
-1.970015 0.976665 1.619491 -0.182281 -0.569054 -1.478110 -0.481575 0.162735 -0.406537 -0.181632 0.038864 0.559494 
 <VARIANCE> 12
3.618666 4.573721 1.248103 0.257900 0.205047 0.650752 0.520141 0.159003 0.235744 0.087344 0.159855 0.116880 
 <MIXTURE> 2
 <MEAN> 12
0.051170 -1.686717 0.571073 -0.374520 -0.479928 -0.872726 0.073575 0.453693 -0.015829 -0.218287 -0.340956 0.446083 
 <VARIANCE> 12
1.378775 1.498405 0.361389 0.235034 0.205592 0.401143 0.249527 0.175270 0.123052 0.067947 0.121536 0.099123 
 <State> 3 	 <NUMMIXES> 2
 <MIXTURE> 1
 <MEAN> 12
-0.490147 -0.515758 1.589572 -0.658591 -0.027441 -0.551807 -0.253658 -0.268759 -0.253210 0.582194 -0.440658 0.167333 
 <VARIANCE> 12
3.866344 0.149936 0.356098 2.952321 0.352333 0.138781 0.108567 0.150798 0.067038 0.075281 0.104278 0.067972 
 <MIXTURE> 2
 <MEAN> 12
1.880705 -0.736283 1.056942 1.526636 0.015384 -0.529069 -0.517165 -0.400306 -0.102731 0.386854 -0.405734 0.064909 
 <VARIANCE> 12
2.915651 0.201341 0.213435 2.583000 0.377155 0.076344 0.182970 0.170904 0.078470 0.073830 0.127422 0.082545 
 <State> 4 	 <NUMMIXES> 2
 <MIXTURE> 1
 <MEAN> 12
-3.032755 1.060188 2.185595 -0.390941 0.678822 -0.734952 -0.391563 -0.078196 -0.364681 0.013638 0.043687 -0.091937 
 <VARIANCE> 12
12.575300 0.663848 1.376911 2.606939 0.544785 0.284361 0.105702 0.216469 0.097802 0.152644 0.039926 0.064849 
 <MIXTURE> 2
 <MEAN> 12
1.921535 0.207072 0.831959 1.500560 0.214243 -0.422865 -0.388369 -0.458657 -0.261017 0.330967 0.086125 -0.283636 
 <VARIANCE> 12
13.740451 0.576914 1.304399 2.566124 0.665988 0.241427 0.165077 0.300552 0.157090 0.139209 0.054915 0.088242 
 <State> 5 	 <NUMMIXES> 2
 <MIXTURE> 1
 <MEAN> 12
-0.992434 -0.232018 1.730356 -0.593998 -0.932572 -2.078964 -0.147443 0.048938 -0.375656 0.086229 0.231547 0.411302 
 <VARIANCE> 12
0.459060 1.594111 0.946285 0.200558 0.518480 0.198305 0.158289 0.395970 0.291983 0.036299 0.331076 0.044746 
 <MIXTURE> 2
 <MEAN> 12
0.111625 -2.119393 0.204262 -1.112890 0.192065 -1.996274 0.450547 0.662619 0.420896 0.059514 -0.604411 0.347411 
 <VARIANCE> 12
0.445167 1.990391 1.410190 0.170631 0.367560 0.100719 0.269851 0.150051 0.375410 0.111615 0.331672 0.080409 
 <State> 6 	 <NUMMIXES> 2
 <MIXTURE> 1
 <MEAN> 12
0.321304 -0.034597 0.055496 0.352964 -0.628934 -1.035475 -0.325998 0.495405 0.477924 -0.544368 -0.331850 0.136149 
 <VARIANCE> 12
0.644856 1.657404 0.621463 0.237625 0.335743 0.179156 0.109734 0.197078 0.090388 0.089185 0.081383 0.095420 
 <MIXTURE> 2
 <MEAN> 12
-0.420726 -1.403549 -0.768176 0.007319 -1.021931 -1.125197 -0.100574 0.854271 0.584494 -0.468720 -0.179241 -0.225401 
 <VARIANCE> 12
0.777074 1.011445 0.530211 0.421023 0.322752 0.199016 0.172021 0.199993 0.074368 0.070191 0.096953 0.127430 
 <State> 7 	 <NUMMIXES> 2
 <MIXTURE> 1
 <MEAN> 12
0.145396 1.261644 1.304261 0.208976 0.481996 -1.122969 -0.398965 0.222026 0.229540 -0.720197 -0.625262 0.630805 
 <VARIANCE> 12
2.111190 0.556858 0.179877 0.408526 0.289284 0.364328 0.154770 0.293072 0.248890 0.141393 0.261894 0.088447 
 <MIXTURE> 2
 <MEAN> 12
-1.408748 0.635559 1.449187 0.010940 0.565194 -0.584727 -0.379790 0.454073 0.352996 -0.450174 -0.226501 0.580734 
 <VARIANCE> 12
1.434652 0.660704 0.248987 0.415698 0.209441 0.451797 0.181206 0.382849 0.128908 0.194018 0.317338 0.171345 
 <State> 8 	 <NUMMIXES> 2
 <MIXTURE> 1
 <MEAN> 12
-2.125546 -0.315450 1.013256 -0.218392 0.490850 -0.133829 -0.173798 0.310357 0.235393 -0.106788 -0.056333 0.398976 
 <VARIANCE> 12
0.884608 0.742007 1.408786 0.318227 0.210295 0.323588 0.125405 0.231854 0.092947 0.184652 0.070138 0.119200 
 <MIXTURE> 2
 <MEAN> 12
-1.299925 -1.220887 -0.362230 -0.149735 0.417686 -0.587234 -0.142608 0.342142 0.066566 -0.263434 -0.028942 0.411834 
 <VARIANCE> 12
0.975971 1.127550 1.327618 0.421098 0.228895 0.373358 0.103511 0.157370 0.107221 0.153712 0.098179 0.083193 



<TRANSP>
0.946309 0.053691 0.000000 0.000000 0.000000 0.000000 0.000000 0.000000 
0.000000 0.958115 0.041885 0.000000 0.000000 0.000000 0.000000 0.000000 
0.000000 0.000000 0.947020 0.052980 0.000000 0.000000 0.000000 0.000000 
0.000000 0.000000 0.000000 0.913043 0.086957 0.000000 0.000000 0.000000 
0.000000 0.000000 0.000000 0.000000 0.929204 0.070796 0.000000 0.000000 
0.000000 0.000000 0.000000 0.000000 0.000000 0.959184 0.040816 0.000000 
0.000000 0.000000 0.000000 0.000000 0.000000 0.000000 0.942857 0.057143 
0.000000 0.000000 0.000000 0.000000 0.000000 0.000000 0.000000 1.000000 
<ENDHMM>